,0,1,2,3,4,5,6,7,8,9,10,11,12,13,14,15,16,17,18,19,20,21,22,23,24,25,26,27,28,29,30,31,32,33,34,35,36,37,38,39,40,41,42,43,44,45,46,47,48,49,50,51,52,53,54,55,56,57,58,59,60,61,62,63,64,65,66,67,68,69,70,71,72,73,74,75,76,77,78,79,80,81,82,83,84,85,86,87,88,89,90,91,92,93,94,95,96,97,98,99,100,101,102,103,104,105,106,107,108,109,110,111,112,113,114,115,116,117,118,119,120,121,122,123,124,125,126,127,128,129,130,131,132,133,134,135,136,137,138,139,140,141,142,143,144,145,146,147,148,149,150,151,152,153,154,155,156,157,158,159,160,161,162,163,164,165,166,167,168,169,170,171,172,173,174,175,176,177,178,179,180,181,182,183,184,185,186,187,188,189,190,191,192,193,194,195,196,197,198,199
Metoclopramide,8.011151,-58.92859,1.3242942,9.47382,2.914259,-1.7951546,-7.5551133,3.534184,-7.212311,15.10356,29.340366,8.649835,105.16842,21.851467,-18.191128,-25.351696,17.958416,-3.9963453,-0.02346001,-21.931002,6.6898046,0.4820387,0.9222279,-3.868922,-6.468486,20.270613,5.7013526,-42.915287,-61.65209,-21.323704,-8.120522,-8.291717,-27.79906,-16.998163,-12.003764,19.124418,5.911518,25.810528,6.8773947,-0.19553916,3.3629892,-40.01852,1.3674217,32.732674,-11.296657,-2.3085513,7.890753,-3.7851207,-2.642819,14.537006,-21.387703,-5.914529,-47.347427,5.225614,1.3990993,3.3892095,-34.20153,4.2346478,-3.6608887,25.060118,26.11064,-3.006588,7.2876687,9.078423,8.367742,3.722698,2.5942168,-52.99811,9.884878,6.8939185,4.765545,6.0909204,-0.5384309,12.221528,0.84487826,1.2606655,13.941963,-11.480967,10.25145,8.698425,6.7929573,52.086586,-4.827212,1.1503642,71.67259,-11.387933,33.106956,-10.528635,19.19125,-0.5403099,-6.75086,8.821364,-1.6088613,-53.83088,22.240265,30.519173,-7.3695297,-0.54917246,35.06362,28.801487,4.0726404,-12.679788,0.55388576,-51.97653,-42.51123,59.534256,-5.300059,-28.914732,-12.6322975,3.1760027,8.518556,-42.95452,3.8469703,0.91184396,-2.06094,10.504558,0.38680872,46.743935,-13.515073,12.709029,-3.8494503,-29.741291,1.4864141,-4.804331,5.262446,-1.1230495,41.847424,3.6068685,-25.24182,-21.09556,110.76582,-46.77374,24.477068,2.7548068,43.357597,14.013354,9.091662,-55.764446,-6.021975,-2.62851,-2.6306517,-0.03222984,-10.754481,-77.36476,-0.41306877,34.955685,-3.1948538,65.45322,-12.886277,-7.3656106,8.268069,53.088287,3.2016747,44.789196,-8.717479,-19.164824,-35.2188,23.520676,0.68992984,2.3974948,-31.708214,-3.0338624,-34.04332,21.758512,7.1357293,11.593731,5.212358,-8.04257,36.494694,-7.187091,69.34498,8.092471,-9.080039,-2.0186944,3.7655828,-1.5632559,18.30458,3.6804497,-15.891345,0.4895278,5.9665647,0.5387329,0.28940237,-2.172609,55.001656,-5.530156,10.517458,-3.9299357,0.5798178,9.391396,-22.201597,16.021233,-5.3744583,3.8494265,-2.5238638,6.3973904,-2.8519447,2.3091981,-7.720275,3.7073822
Indomethacin,-1.0535605,-55.008823,4.3367367,11.636397,4.2717967,-1.9755521,-6.16256,3.8610568,-2.2981238,17.854044,29.800985,10.461479,103.42764,25.818752,-18.830307,-24.079187,16.950506,-3.5814166,-1.8841115,-18.607943,3.1979415,0.8152675,-0.88034415,-4.9824758,-4.702095,23.202377,13.846267,-42.867756,-63.694614,-21.457579,-14.1923,-12.881654,-32.188023,-20.895357,-9.757952,22.267359,10.512153,29.194324,12.878607,0.57719564,3.0253654,-39.158012,-1.9527361,33.831345,-10.557711,-3.25752,8.871225,-9.536065,-3.9244251,15.674119,-23.671867,-4.0129256,-45.671535,6.141093,2.3270485,5.4741206,-32.53014,4.3398848,-8.430859,23.599476,29.136772,0.0056613907,3.4975152,13.120045,5.8995275,0.31602535,3.2806792,-54.37279,12.308881,7.3378696,6.866974,7.8342323,-1.8628967,13.78429,-1.5491613,1.7031821,13.3831,-9.70536,12.07054,7.441882,3.9863887,52.05636,-7.120987,1.4635868,70.44116,-4.968641,35.36023,-10.99727,19.470695,-2.4419131,-4.8554873,9.435604,-5.767366,-54.160057,21.234621,30.086525,-4.2664223,-5.6093435,36.056396,30.708656,6.6848574,-9.437972,-1.7685683,-49.116734,-42.224697,60.021744,-6.361071,-27.258488,-10.449315,3.2348049,6.4460173,-46.332882,3.8336203,4.091216,-2.5326786,9.415759,-2.0575314,45.91483,-18.946346,12.517912,-3.5785108,-30.889378,-2.2697494,-2.9473338,11.507121,-3.8803608,48.194183,3.9764023,-24.42261,-24.712507,109.96038,-40.990833,23.806396,3.478363,44.619152,14.196687,0.7473617,-59.09845,-4.938819,-0.1444338,-11.364968,-2.9377244,-10.254979,-78.35601,-2.937382,33.17007,-5.852371,66.5248,-17.88267,-10.438795,9.833804,54.039307,0.10376366,45.055172,-11.509971,-16.20087,-33.24152,27.768,6.0438395,-3.8220456,-29.356298,-0.16447803,-38.269466,26.370382,1.8350804,10.613573,8.148723,-10.282193,38.704952,-4.9680824,66.47264,-1.759662,-10.513198,-3.2754815,0.85775626,-9.816184,18.14447,1.6210263,-15.480618,-1.7623543,8.163623,-0.16836554,0.5852821,-4.678864,52.574375,-4.6512685,9.89387,-4.691968,-4.2431855,15.7951765,-18.355894,14.899432,-4.2493477,2.065985,-0.06951735,5.195715,-2.798312,3.9571247,-8.049744,9.3952675
Aspirin,17.112259,-53.473446,8.859351,8.877472,4.9811597,-5.098531,-6.463077,4.0548806,-7.1233997,11.293242,27.633394,9.622324,94.22452,17.442055,-17.989004,-22.50133,19.32975,-4.33354,-0.6503322,-20.21289,9.444827,-5.6824827,-5.9668336,-1.7767091,-12.170893,19.720263,2.4630346,-36.809227,-54.46297,-17.821869,-5.9159565,-7.098963,-24.193455,-6.729952,-14.495491,24.477198,5.451911,26.314697,6.711673,-0.62651485,-1.5312238,-41.855644,-2.3748796,28.073738,-13.478662,-0.71010536,7.0101852,-5.658129,-5.8359094,11.924226,-26.431564,-0.77784777,-45.705135,1.6020595,8.479638,3.6433747,-26.238825,6.6221504,-8.497636,24.863657,21.72914,1.1663187,12.193122,2.4360943,10.84137,3.5121665,-2.318388,-48.556187,13.11015,5.320618,0.45426947,7.8022094,-4.1727834,8.1642885,0.7760762,-9.6282835,16.102884,-12.775292,11.040168,8.10984,7.7757845,46.428326,-3.8283188,5.0203166,63.66941,-10.897505,31.540981,-13.677465,13.185532,-4.724456,-5.023247,6.612356,0.26220968,-44.71228,20.880125,20.276272,-5.5125856,-2.446225,30.314938,20.922215,5.957164,-14.11934,2.568941,-49.164524,-37.453068,52.05504,-3.0011077,-27.643793,-16.860092,1.8048637,16.914652,-42.384453,6.1228905,3.7150466,-0.7023624,10.105625,1.1337187,39.279343,-14.019301,10.251506,-3.7634697,-22.448078,5.505476,-4.419042,4.301672,-1.4541161,36.90064,6.0695386,-18.652338,-22.077597,100.79264,-42.86153,23.797297,4.2600102,32.995125,14.232681,13.689076,-56.11997,-7.3686786,-3.9983215,-0.5234955,-2.6854503,-12.326034,-69.547806,-4.906998,34.884243,-8.089663,61.231197,-12.404117,-7.5735874,14.455913,47.487194,-0.038232647,41.714886,-6.218367,-15.457452,-31.083628,19.532574,2.4500651,0.06946684,-30.452696,-0.04573927,-28.091017,20.245577,3.581025,3.3020327,3.5536375,-6.5647626,32.35295,-7.3709927,63.217384,10.809624,-16.680744,-1.1793357,3.4821959,-5.7080755,12.566871,6.8836427,-17.99058,-0.5089004,9.700582,1.8278742,2.665792,-10.249073,45.27453,-9.923155,7.421846,-6.7783794,7.191843,9.247373,-17.638767,18.431461,-10.169692,1.8458052,-3.2383475,11.590606,-3.1921244,5.6323442,-4.5634375,3.8982556
Ibuprofen,12.73011,-55.631454,9.301767,12.6915045,0.4936826,-1.7517748,-4.9538083,4.029677,-3.6763391,12.85941,34.09478,6.3759246,98.89137,21.971155,-21.420954,-18.188984,18.611135,-6.9654455,-0.70943666,-16.887636,5.685685,-2.7162068,-5.7205887,-0.14168409,-13.478217,23.463705,8.581266,-38.170757,-60.964867,-21.815943,-11.337623,-10.224849,-30.119837,-9.975261,-15.203911,27.234222,7.7912326,30.03512,10.189477,0.72329456,-5.8026323,-45.624603,-7.7125287,30.40435,-12.512308,1.5839826,6.828969,-7.071165,-3.7710438,12.712209,-27.44047,-0.6581725,-42.753395,-1.6379427,10.477261,6.1362963,-24.81602,5.7332745,-10.226232,27.471691,24.442595,2.6647964,7.929572,2.1758797,12.000665,0.9083655,-3.7425814,-49.367054,11.385803,1.0423242,-1.6619611,3.7451315,-1.1715589,9.542887,1.9312224,-9.40543,14.407188,-12.326197,8.137082,10.361074,8.765164,46.678474,-2.0595558,3.096766,63.15439,-5.3583865,34.484867,-12.245237,16.198689,-6.0190287,-1.2601151,10.84871,0.122954816,-52.073414,23.373964,21.704292,-4.7552814,-2.5697405,30.650599,24.92645,10.407904,-9.7771845,0.6029393,-49.36197,-40.05009,53.367588,-0.16921273,-31.87286,-14.578899,-1.7191817,11.941909,-45.137787,8.32107,3.7014437,2.1407597,8.283387,3.41211,46.2129,-20.540678,9.792125,-2.8855474,-26.531197,4.9620953,1.3326516,10.561546,-0.8844392,43.04401,10.854153,-22.85391,-29.471388,108.639145,-40.92913,30.329079,0.42800933,33.75854,9.221802,8.071413,-57.444115,-13.501606,-1.8645905,-2.400093,-0.0033964505,-8.749383,-71.98278,-9.01744,34.108585,-11.579428,63.155396,-10.383165,-6.031917,15.533517,52.824177,0.79283303,40.493507,-9.625052,-16.251621,-29.532206,26.085331,4.8004127,-3.627517,-28.541258,4.6248956,-38.286747,25.35836,1.4544784,7.7748613,8.290355,-9.701143,36.474136,-7.940262,62.556213,4.3903174,-17.107542,5.3314776,1.2781596,-9.345979,13.750482,4.042192,-23.911629,-0.7451341,11.769106,-1.371804,7.2088904,-12.2589445,43.317486,-10.8554125,12.85463,-1.4799979,2.210651,11.1380415,-15.018086,15.7907295,-11.705324,0.5969117,-6.4542236,8.968382,-6.5764256,2.8019202,-7.3179784,9.859485
Benzene,19.258211,-50.516346,14.385322,11.310829,1.09137,-3.7052634,-3.0811365,4.685928,-10.216701,10.833533,32.821926,4.686986,92.98377,18.98917,-23.743269,-13.306861,22.032022,-8.06758,-2.7929423,-17.479326,9.746196,-4.9438305,-10.0542345,-1.9406797,-14.575666,18.025364,3.1585755,-32.692715,-54.157284,-19.409872,-7.9799514,-10.361069,-27.608086,-0.8659044,-12.530406,25.774792,9.290836,34.39421,8.385314,-2.6162238,-13.563478,-44.72682,-10.393062,20.087564,-6.323475,3.8165107,5.288224,-5.027453,-4.98708,11.927446,-33.159966,-0.7888397,-41.972725,-9.206675,18.972939,6.710145,-20.268583,7.593462,-8.793545,28.993101,18.242579,3.032104,12.391324,-4.2250175,12.714668,6.57499,-6.302012,-47.934902,10.457879,1.0562354,-9.953957,1.9033027,0.6065887,6.7128944,2.5606165,-16.08105,17.383413,-13.120264,6.34162,11.903166,6.423927,44.73308,0.89166975,8.500161,56.22129,-9.8564,36.17084,-12.676817,9.967354,-6.9921956,4.318164,8.721952,5.6564684,-47.549564,18.764366,16.186092,-13.269933,1.4651098,24.929632,18.24333,12.447472,-18.020016,5.277306,-49.981926,-34.982464,46.398506,5.8818808,-29.671373,-17.698555,-4.037351,18.498474,-41.463696,14.431302,8.92736,6.9029613,11.133269,4.309514,44.998928,-17.44372,8.042647,-4.153254,-19.282648,11.119681,-0.0610217,7.3004265,2.172505,34.58644,15.169894,-14.687707,-26.69169,101.16849,-39.021843,31.42913,1.2261933,27.090183,9.58807,15.840044,-51.156338,-17.604755,-2.1039903,5.44406,0.3535251,-7.100535,-64.592026,-17.321117,32.596973,-14.724505,59.168144,-8.256743,-8.421079,17.204535,45.72413,1.8486114,37.725025,-10.011327,-15.88812,-30.905962,24.69958,6.880664,-2.7182486,-30.301989,6.527371,-35.9099,22.248413,1.2914933,1.2326016,3.8979845,-11.848598,33.114735,-7.451055,59.729958,12.851121,-23.64401,8.411179,1.5333539,-4.6544657,6.9435425,9.722388,-23.304115,-4.6577487,13.520281,-0.09830289,5.389259,-20.297043,37.0283,-13.234131,13.015645,-2.7031934,6.8616314,6.2149963,-13.326159,15.074926,-14.523434,2.4216456,-11.635301,12.238619,-5.4367037,0.9219592,-2.7807527,9.17071
Phthalic acid,19.517622,-54.75156,6.4565086,9.123068,2.2923677,-3.7315412,-7.303991,3.0736568,-4.0151677,7.7805557,28.232456,8.309153,91.57453,15.560164,-15.030474,-22.383678,15.600311,-4.2758393,1.8005347,-18.605188,7.40315,-5.259143,-3.9300292,2.5345283,-14.994043,20.98845,0.7035103,-34.875385,-54.222702,-16.934364,-6.745846,-4.099679,-21.025948,-5.883829,-17.339844,24.21749,0.71809417,21.629837,3.7044506,1.7134972,0.4646908,-41.230587,-1.4309596,29.617483,-16.820465,0.31947356,6.541564,-3.0860748,-2.8107343,9.581586,-22.060078,0.24482071,-42.129528,3.793205,5.6572714,2.7839396,-23.544716,6.103764,-7.950345,23.004122,20.882385,0.7589102,11.63393,0.6440284,12.696526,1.2488735,-2.6613648,-43.8838,12.097801,2.5409358,1.7705846,6.1787663,-4.3383174,7.125498,1.9850959,-9.586426,12.5938225,-12.319967,9.775073,8.629192,12.103026,41.707375,-2.314568,1.0519345,61.126198,-7.901838,26.880474,-13.169052,14.204244,-5.675644,-7.3390627,8.762728,0.34647903,-42.609314,22.218792,18.703564,0.375199,-2.601282,30.902258,20.807924,5.709114,-8.387808,-0.104748555,-46.668865,-38.442997,50.42071,-3.972227,-30.190178,-16.482767,2.1385841,13.987951,-39.242016,2.935693,-1.1381583,-1.1570417,8.357291,3.3164895,38.659756,-12.921048,8.643621,-2.0752208,-22.76613,5.2267065,-2.2972758,3.9459023,-2.151826,36.829712,6.7983036,-21.757196,-23.130945,99.04305,-43.353317,23.978611,1.3966405,30.239998,10.20354,12.105315,-55.933426,-8.471122,-5.2990503,1.6712685,-0.39257783,-11.716197,-66.52382,-1.6401552,33.874653,-7.3206816,59.046223,-7.751759,-3.4486911,14.432571,47.96433,0.5982129,37.940224,-4.5664196,-14.57404,-25.928339,16.607231,-0.7706568,1.4118212,-26.930492,-0.067275025,-27.141634,20.136606,4.553654,5.7070665,4.1932697,-4.5954556,29.832691,-8.985311,61.062584,10.588902,-13.784588,0.85635036,3.0296414,-5.8065,14.4436,5.1100173,-20.567709,3.6156478,8.597992,0.7070922,7.1738367,-6.8486886,43.058468,-9.123511,8.194532,-5.0299835,6.6177406,7.1687055,-16.344818,17.687542,-10.571552,-0.7611936,-1.3209864,9.849209,-6.100611,6.0685086,-7.070656,2.1147408
Chrysene,3.047841,-49.564293,12.806873,15.31615,-0.7142692,-0.10610001,-2.7151444,3.5525,-2.417644,15.185929,36.575237,3.978534,95.99293,26.089611,-24.846674,-11.642255,18.953402,-8.019089,-3.412205,-12.815979,1.4148142,-0.4136767,-8.145504,-2.2022152,-9.179162,22.806345,14.528635,-35.566223,-61.077347,-22.98067,-17.896095,-16.455112,-35.9498,-11.61874,-9.586093,26.23125,14.546445,37.201496,15.300071,-0.732624,-12.51313,-44.304436,-13.805782,24.105837,-4.8360305,4.6243405,7.132669,-10.091479,-2.2829294,15.307579,-31.225779,-2.0064197,-37.87109,-7.401029,15.905075,9.499797,-20.639778,5.6432605,-12.186462,27.553032,23.614975,4.9129186,2.6763403,3.5035257,9.499551,0.6216607,-3.5160794,-50.200596,9.495999,-1.5211139,-6.440429,1.6786826,2.6928775,10.728993,0.6224364,-8.327638,12.743845,-10.714753,5.6581917,12.310379,5.7857976,46.41592,-1.1968406,5.6807013,56.802917,-0.36633608,39.69587,-10.411613,15.544307,-7.942484,6.0131807,13.395208,0.074650615,-55.55298,19.637281,21.208725,-8.798703,-2.069458,27.986164,26.16028,15.566662,-9.42403,-0.8883037,-46.911114,-38.362637,50.37178,4.7438326,-29.23126,-10.976437,-5.3995695,8.3370905,-44.170456,14.008218,9.375714,7.7142906,8.903458,3.1071262,51.348625,-24.176256,7.8607473,-3.0947092,-24.955711,4.0419188,5.23415,16.29317,-0.6266324,45.03452,15.727922,-19.490345,-32.71179,106.77174,-34.787262,33.91686,-1.2715496,31.876581,6.4117165,1.6263199,-52.676895,-18.09418,1.2609189,-4.598524,1.1515868,-4.018789,-68.54276,-18.519566,29.552263,-15.59298,61.147823,-11.620917,-9.693594,16.87456,50.614742,2.091522,37.935436,-14.634733,-14.632271,-28.225384,32.422504,11.601533,-9.109428,-25.231024,10.021213,-47.51054,29.379414,-2.9253528,7.6686025,9.223477,-15.197221,36.97819,-4.7804646,57.84769,-1.7009655,-18.40456,9.467163,-3.254062,-12.487909,10.286149,4.266346,-23.469046,-5.9603705,13.91437,-3.2701907,7.833953,-17.666632,36.784237,-9.566502,17.174707,2.0792332,-4.0582914,13.250306,-10.089242,9.887412,-10.762828,0.97510123,-9.357272,5.5750027,-6.906997,0.17108078,-6.9675016,16.81448
Cyclohexane,17.998116,-46.24028,13.935711,11.760343,0.4854064,-2.804656,-3.1828358,4.632453,-8.809488,9.75764,31.629461,4.0096784,86.55056,17.740776,-21.315868,-11.226267,20.38064,-7.827882,-3.2036974,-15.402626,7.850442,-4.643303,-9.808126,-0.53895813,-13.096712,17.468939,2.7251055,-29.23882,-50.257904,-18.017696,-9.628011,-11.078917,-27.065025,-0.8641045,-11.493974,24.525627,9.231783,32.445137,7.3539705,-2.3957634,-13.721897,-42.030563,-9.811599,17.296938,-5.198036,5.4277983,6.1803207,-5.408244,-2.5751147,12.061263,-30.447063,-1.4275508,-37.22437,-8.032292,18.88708,6.373843,-18.549698,7.290823,-8.917752,26.11077,16.279446,2.4527411,11.4000025,-4.095359,11.949612,5.8156304,-6.1243925,-45.00226,8.931526,0.34391424,-9.775215,1.6803963,1.8932481,5.5747523,3.230181,-15.082855,14.964347,-12.287407,4.8291173,12.867395,8.60288,41.289024,1.8445158,8.455967,50.98455,-8.346257,34.382515,-12.788866,10.419139,-8.349821,5.014044,9.610237,5.3759203,-44.517536,17.671621,14.785239,-11.156886,2.3170037,23.171667,17.348078,12.877388,-15.314325,2.920877,-45.447792,-32.392017,42.196068,6.3304543,-27.258654,-16.24142,-4.642137,15.845059,-37.266094,14.299174,8.5555935,7.264564,10.280788,4.592882,43.992363,-16.798096,6.637693,-3.8960912,-16.77612,10.886779,0.71905416,8.049336,1.4381146,32.38937,14.829561,-13.335313,-24.957329,93.75445,-35.699562,30.555841,0.41568527,23.711542,6.8004313,13.39027,-46.63368,-17.224169,-2.4840102,6.1724973,0.7568607,-5.970694,-59.31776,-17.261356,30.039703,-14.465241,54.667915,-6.5503917,-7.5695224,17.687698,42.18969,2.077563,34.77846,-10.65232,-14.297615,-27.877197,22.959167,7.051285,-2.4782765,-26.897432,6.4635534,-35.572735,21.915998,1.0619972,1.7264297,3.3804996,-12.036988,30.441912,-6.6309805,55.018265,11.580034,-21.411118,8.555971,-0.76926416,-4.645063,6.7594767,9.278838,-21.42923,-4.872249,13.380164,-0.32154778,6.6341963,-20.50947,33.618637,-11.959349,14.143514,-1.3240335,5.086105,5.7036448,-12.568613,12.342898,-12.880534,2.3544276,-10.823621,10.236246,-5.9544177,0.11580517,-3.6770632,8.94124
Ethanol,21.39513,-45.567608,10.295596,7.938146,0.35183507,-3.6098247,-4.1216655,3.6881735,-10.8394785,6.528919,26.134354,3.6375377,77.99333,12.129623,-17.616833,-13.321367,17.620422,-6.2102447,-0.8705573,-16.832367,9.5464325,-4.8262463,-6.52664,-0.0038020918,-13.733164,13.385883,-2.917804,-26.125374,-43.6343,-15.251627,-3.5002813,-4.9181843,-19.310339,2.080945,-12.043494,19.083391,3.3697283,25.000544,1.8093632,-2.1676004,-8.845993,-36.99409,-4.6986694,16.30416,-6.6544614,3.546493,4.495059,-0.22359073,-2.5589423,9.52612,-24.608124,-1.2216161,-35.53307,-5.4729495,13.943362,3.9270961,-17.74946,6.357232,-4.643531,23.462038,13.667272,0.6321273,13.075914,-5.2357507,12.070709,7.874159,-4.805635,-38.15022,8.411915,1.0903558,-7.977666,1.1312323,0.6886574,4.093987,2.9881914,-13.391856,14.513632,-12.165308,5.062941,10.318574,8.0340185,36.920673,1.6897259,5.3468137,47.66849,-11.451618,27.256973,-10.339632,8.526067,-5.0733285,0.5144309,7.3333526,6.9297476,-38.389732,16.495615,14.706077,-10.778666,3.1191788,20.481802,14.039429,7.6672306,-16.150522,4.7690578,-42.57755,-29.21132,39.38789,4.489964,-25.790854,-15.225251,-2.7290864,16.64308,-31.275835,10.848201,3.779444,5.328408,9.405974,4.8146753,36.8113,-10.271435,6.082135,-2.8855278,-15.365877,10.500636,-1.594175,2.033845,2.611957,24.930637,11.233311,-12.953626,-18.885057,84.273094,-35.769127,25.304192,1.0143026,22.214891,7.44902,17.873278,-42.267464,-13.918764,-3.5602126,9.854256,1.9110651,-6.65291,-52.977867,-11.217815,27.814613,-9.677109,48.643833,-3.9372349,-4.4687967,13.09467,37.380444,3.508804,31.108051,-6.1986685,-14.3532715,-26.215557,16.649933,1.639539,2.0050433,-26.770962,2.149796,-25.811764,15.768755,4.9072404,1.3006016,1.0648916,-7.558194,25.63785,-7.328828,51.355713,16.300228,-17.944702,6.7490253,2.8541062,1.0107611,7.4371376,9.380727,-18.904938,-1.5104636,8.729971,0.9820793,4.4422455,-13.768951,32.45385,-10.450377,9.642308,-2.7412183,8.944216,0.79780525,-13.291597,13.503381,-12.286832,2.9629385,-8.90539,10.5062065,-4.1956587,0.7956628,-2.2435858,2.807257
Dimethylurea,20.473553,-50.40057,9.206936,7.4739575,1.889814,-4.0133686,-4.2775316,3.4968698,-10.936031,8.669162,27.032578,4.822769,84.9008,14.537576,-19.559452,-16.389294,18.889854,-6.005979,-0.07070837,-19.106014,11.28702,-4.396588,-6.144762,-1.6849537,-14.819796,15.464508,0.1725727,-31.365953,-48.583416,-17.439363,-1.7128168,-4.6380844,-20.253975,-0.8843391,-14.177946,21.115257,3.4183104,26.038803,4.930133,-1.6036141,-6.6677485,-39.783344,-5.365711,22.765312,-9.866262,0.34454948,3.1023064,-0.8211562,-6.5438004,8.913142,-26.19849,-0.37902924,-40.91648,-4.9854875,11.671388,3.7397163,-20.849718,6.255909,-5.2021103,26.051561,17.264067,1.0873494,12.566876,-3.6107843,12.080477,6.6829247,-4.466047,-41.258408,10.220456,2.2328193,-5.458498,2.1205988,-2.0486114,6.0617304,1.8009818,-13.197496,17.139248,-12.92152,7.183914,7.4339595,5.0547376,40.773533,-0.4688137,4.7405367,54.611656,-12.359272,28.852467,-10.142431,9.024337,-2.76433,-1.977669,5.685171,4.898285,-41.90555,18.347263,17.074955,-11.421012,0.7325142,23.307957,16.389603,6.576825,-17.132778,7.179317,-46.881214,-32.739185,44.415386,1.7863407,-27.891853,-16.724367,-1.0090594,18.26006,-37.754772,9.158658,3.6207197,2.8952606,9.604079,3.9052937,36.818623,-12.232268,8.538814,-3.4147418,-19.624153,8.820313,-2.4905896,1.5645517,2.7443168,29.62611,9.889985,-15.898066,-20.777716,91.90358,-39.15796,24.734304,2.2778542,27.492355,11.111985,18.270521,-48.144012,-12.384487,-2.5028148,5.4097853,0.7069163,-8.562612,-60.48354,-8.599647,31.345165,-9.357576,53.87308,-7.7899895,-5.3471684,11.565515,42.097084,1.9945838,35.014347,-5.194198,-15.443658,-29.054453,18.905834,1.1461769,1.1994007,-29.5922,2.466335,-25.372002,16.715918,4.617578,1.8777645,3.0786867,-6.6123157,29.358784,-8.288494,56.34087,14.947834,-19.002516,4.673306,5.7738247,-0.86200714,8.984822,8.033939,-20.850788,-0.3320847,8.510721,0.80004734,3.0685656,-11.394967,37.079796,-11.808595,7.819954,-4.24043,9.962032,3.2604442,-14.017048,17.47402,-13.527463,2.3569489,-8.701691,12.946602,-3.6932657,2.4862866,-2.004189,3.6004133
Acetic acid,22.27691,-49.86894,10.726412,8.003728,2.580628,-4.5779877,-5.111226,3.6480024,-9.553197,7.8340564,27.080824,5.711856,83.92229,13.364209,-17.899609,-16.946785,18.809933,-5.8397565,-0.59185964,-18.401472,10.471028,-5.742428,-7.6023827,0.008446961,-15.293272,16.015713,-1.0511813,-29.916891,-47.770554,-16.46486,-3.3562381,-5.039489,-20.288225,0.433301,-14.654721,22.682337,3.05839,25.704288,3.7080476,-1.0621907,-6.335701,-40.607285,-4.844042,21.279757,-10.8537035,1.6785113,4.5933576,-2.0637317,-4.865136,9.293543,-26.031101,0.27293375,-40.205933,-3.3073397,12.707805,3.5065615,-19.97995,7.1379747,-7.0108223,24.889086,16.37701,1.5225079,13.620105,-3.9022884,12.672586,6.0377603,-5.06157,-41.20774,10.759143,2.3088887,-5.215743,3.5505586,-2.057212,4.796154,2.220108,-14.438316,15.749231,-13.350051,7.665704,8.81098,8.372193,40.08916,-0.048510224,5.091361,53.829044,-11.520726,28.495682,-12.030445,9.116847,-5.3662376,-2.2679698,6.7879834,4.786618,-40.269314,18.819082,15.621073,-8.554239,0.5489722,23.890133,15.752784,7.27961,-15.3744335,4.8513355,-45.659542,-32.494316,44.04583,1.5457373,-27.411554,-17.269209,-0.9423722,18.426062,-36.553364,9.113711,3.6264393,3.0988457,9.602483,3.9340827,36.97581,-12.280464,7.5819993,-3.351431,-17.785042,9.138505,-2.7338128,2.2813196,1.1524074,29.685163,9.745856,-14.999323,-20.699268,90.85924,-38.953007,24.593262,2.4705212,25.159742,10.153732,17.612507,-49.11934,-11.966708,-3.8410199,6.274537,0.14562422,-9.299474,-59.493523,-8.790683,31.100367,-10.105171,53.68376,-7.1348543,-5.0421104,14.188446,41.488247,1.2849832,34.794205,-5.5567303,-14.277289,-27.43701,17.269453,1.5282854,1.0467043,-28.340002,2.1560736,-25.368095,17.578136,4.2802386,1.3062586,1.9304767,-6.532084,27.985838,-8.075182,56.014015,15.033422,-19.108463,4.2149067,4.050099,-2.346789,9.126955,8.789054,-20.026997,-0.3878819,9.70725,1.2080126,4.6432333,-12.994354,35.995483,-11.652183,8.170945,-4.7701316,10.039446,3.7253337,-13.872312,16.871326,-13.111171,1.8471369,-7.294089,12.564446,-4.4361176,3.4787908,-2.640978,2.878905
Oestradiol,8.940853,-60.725483,4.3479285,13.925497,-1.1488746,1.0842038,-6.786633,3.6411383,-4.3876467,15.285435,36.077286,4.967959,108.57004,24.038332,-20.514086,-20.823599,18.437449,-6.821172,-1.1252233,-18.48187,3.5292237,1.2189415,-1.3241534,-0.32985738,-9.152443,23.488049,8.077742,-41.74863,-65.86323,-24.73006,-13.244882,-11.258892,-33.5192,-16.456264,-13.495002,23.402958,8.011543,29.470293,7.8580766,0.5977996,-2.7573516,-46.19428,-4.1165676,32.032616,-10.425534,2.3986514,9.211364,-5.381657,1.3851993,16.013784,-23.027842,-5.6275396,-43.697884,2.1026573,6.1244874,5.270071,-31.70673,4.617133,-6.568371,27.523855,26.162592,-1.7999814,5.760315,6.530832,11.04763,1.6810951,-0.70964223,-53.44489,8.320252,2.432934,0.8931806,2.9911196,3.2938244,11.483801,3.532537,-1.274366,12.0952215,-12.494081,7.000799,13.168557,12.186336,51.994034,-1.957691,0.9312576,69.45729,-7.3283477,36.38141,-11.213139,21.913214,-4.9715447,-1.9507196,14.135139,0.18131116,-59.22238,25.586493,29.574339,-5.8327045,1.6450692,34.429493,31.094654,9.745434,-8.2379465,-2.6341655,-51.641853,-43.64729,59.587807,-0.54543084,-32.61452,-11.606804,-1.644588,5.3819776,-43.356976,7.9465294,1.670091,2.0322392,9.345533,3.5707562,54.70288,-19.424074,11.141752,-3.1535246,-30.807642,3.0757213,0.7160731,11.378683,-0.57599664,44.84243,9.193054,-27.391,-27.62694,117.59524,-45.526302,32.11097,-0.8394229,40.218822,7.9582305,6.18754,-56.462822,-13.187108,-2.0906098,-0.20513546,2.8555152,-7.52728,-77.23167,-6.2526784,34.13718,-7.9999137,66.31244,-9.214295,-4.7306533,12.583578,56.916008,4.3101754,43.64077,-12.080039,-20.059937,-33.418114,27.58881,3.2057374,0.015738497,-29.510897,1.3480531,-43.970486,26.574335,6.1025915,14.870687,7.4988375,-11.191332,38.409874,-7.978626,68.37016,4.8975987,-10.581294,5.4752493,-0.112378605,-4.6718364,18.675186,3.1239522,-21.019419,-0.41474622,9.3073435,-2.0804746,5.8302255,-7.790613,50.881123,-7.5535936,17.135763,1.7669312,-2.599727,9.899684,-19.963284,12.8227005,-7.2894273,2.8571172,-6.4547815,4.1680346,-6.492366,0.0502524,-10.070802,8.07385
Pyramidone,9.482774,-50.76162,8.919272,7.423939,6.216028,-4.6432023,-3.406933,4.3233495,-14.731266,17.405909,27.138475,7.0842705,95.46731,21.23234,-24.682755,-18.728466,23.910175,-5.215754,-4.2779284,-22.334661,12.201909,-1.8049238,-6.4751616,-10.670718,-5.5597386,14.106456,6.185593,-38.798775,-53.798874,-20.868616,-2.832291,-11.264001,-28.314562,-9.852757,-7.265294,19.015524,12.61903,33.52678,11.3845215,-5.368123,-6.2670345,-39.85797,-5.1372952,23.207724,-3.927449,-2.885232,5.220621,-5.5957084,-9.552358,15.142262,-30.8799,-5.169121,-48.767155,-6.179749,11.771816,4.954532,-29.8118,5.6224957,-4.849818,28.76494,21.517864,0.020057179,9.218386,4.760712,6.2798734,9.341946,-0.45784625,-52.433918,10.146246,8.011938,-4.0845747,5.1581783,-0.24093406,10.545391,-0.78336334,-6.1795793,21.346512,-11.922009,9.548626,6.882609,-2.1785119,52.526905,-4.960647,9.39601,64.1885,-16.550007,37.98742,-9.219661,11.254158,0.6035427,1.1362791,3.3461792,2.3725774,-50.490257,17.11165,25.866783,-20.910091,1.5856075,26.465778,21.82384,6.799367,-24.339308,9.410798,-51.9418,-34.37807,51.752716,1.4593381,-23.274733,-14.565257,-0.03659922,17.640678,-44.45969,12.371412,10.859044,2.4033473,12.749832,-1.1745257,42.28906,-13.970843,12.860977,-6.1079497,-23.322428,5.692723,-6.018479,4.1329284,3.150916,34.126003,6.695034,-14.543738,-18.793486,100.55289,-40.557564,24.250626,6.141178,38.94932,18.156416,16.201696,-49.090553,-8.378649,-0.28042746,-2.0905952,-2.1944864,-9.6909,-70.4849,-11.460245,33.192303,-7.6428437,61.00831,-17.57446,-12.967366,9.063779,45.197838,1.7901038,43.78227,-9.725173,-19.037678,-39.69286,26.293362,6.1008844,-0.91828,-35.712753,1.2926728,-31.25769,18.75565,4.199865,2.2841265,3.185999,-11.26151,35.69084,-4.64161,63.772213,11.504015,-18.7755,-0.8493793,5.834445,-0.3064964,9.390168,8.271984,-14.303146,-7.200354,8.9223795,2.027786,-5.6053843,-12.646472,46.81621,-9.839128,8.056247,-6.103095,5.5093546,9.100097,-18.586948,17.183113,-9.331263,7.0965333,-10.411116,12.207629,1.8265462,0.38495943,-0.41408175,7.1886086
Etoricoxib,-4.4843273,-50.004993,7.7026963,10.518919,6.0941234,-3.5565073,-3.7699502,4.047457,-2.5609226,19.2669,28.064558,10.815136,96.830986,26.520237,-20.883768,-21.372126,17.526728,-3.550036,-3.1744561,-17.447409,4.435374,-0.019520363,-4.185615,-8.117743,-4.1956935,21.798136,17.225235,-41.194153,-60.586487,-20.790686,-13.570692,-14.599225,-32.218082,-19.473476,-7.3766165,22.766987,13.827908,31.927336,17.069683,-0.74731416,0.5070598,-37.392994,-5.2716,31.285973,-8.557523,-4.9426217,7.403825,-12.09247,-7.684177,14.854029,-27.484821,-2.170147,-45.340202,2.2671087,5.434694,6.5514517,-29.381853,4.555658,-10.701181,23.973106,28.671976,2.934064,2.2256844,13.000422,3.9054568,0.63970196,2.445333,-53.14001,13.552655,7.6201687,5.0572767,7.998741,-3.7003398,13.654839,-3.582427,-1.0427939,15.7238655,-8.655131,12.789417,4.7683396,-1.2820396,50.7713,-8.361571,3.979603,66.21484,-3.9719853,36.426697,-9.766772,15.796525,-1.8484292,-2.4439623,6.7847466,-6.344151,-51.561817,18.42583,27.406445,-7.2336965,-8.041459,33.162235,27.847307,7.7792273,-12.096496,1.4120374,-47.06498,-38.861794,56.278267,-4.9514866,-24.458435,-10.19916,3.0020013,9.147203,-48.173923,5.4265695,8.271872,-1.7995921,9.118157,-3.898479,41.596413,-20.648851,12.334968,-3.8423247,-28.803724,-2.5686772,-2.760741,12.707514,-3.4455764,47.505375,4.806758,-20.396112,-24.95991,103.958206,-36.109367,22.224915,5.0589976,43.24824,15.879698,0.099672265,-57.581726,-4.6263785,1.8230413,-15.79867,-4.9222083,-10.001849,-75.28504,-6.564593,31.657885,-8.160213,64.15549,-21.336933,-13.447926,9.777686,50.663925,-2.0195754,43.569096,-12.148929,-14.443993,-33.081875,29.72559,9.087361,-7.529662,-29.388062,2.5431278,-36.69066,26.199574,-1.655597,6.088172,9.125065,-11.317208,38.379417,-3.1596549,62.059593,-4.9055347,-14.34249,-3.9364698,1.2830706,-12.76076,14.530077,1.7237287,-15.325337,-4.525843,9.616082,0.2496517,-1.3673788,-7.945276,47.838364,-5.9590616,7.1466894,-6.4451017,-3.7036505,18.062984,-14.650399,15.684794,-5.5071445,2.0148811,-1.0223922,7.151422,-1.0326306,4.4893885,-5.5446854,12.656814
Nimesulide,5.1288424,-50.97118,5.368791,8.770447,7.5306764,-4.984517,-7.5461984,3.6604419,-1.723357,13.710656,24.619093,13.956591,94.44125,20.429777,-14.165925,-26.85119,15.84403,-1.5070523,-0.5659972,-19.071121,4.8982787,-3.4525657,-2.4081953,-3.0374293,-6.1307435,21.679585,8.228196,-39.09405,-56.48895,-16.180275,-11.3168545,-9.128167,-25.624619,-15.619103,-11.561261,22.920956,6.8288746,24.0572,9.188687,1.4064183,6.7815547,-35.99987,1.8334471,31.950026,-14.748354,-3.8567643,9.284212,-9.6027565,-4.898687,13.2208395,-22.191967,-1.6363171,-45.603893,9.72738,1.3365045,3.3979871,-29.639404,5.63233,-10.194981,19.601515,25.856861,0.9538617,7.153591,11.590258,6.501616,-0.34307688,2.8217685,-50.492584,14.445888,8.5521,8.3871155,12.139271,-5.925912,11.347082,-2.1543815,-1.445929,12.273718,-9.896737,14.307375,5.6683874,6.0911064,47.219166,-7.7743096,2.4716187,66.522125,-6.019155,30.440386,-13.876333,16.384537,-4.3176303,-8.976931,6.456875,-6.467249,-44.01351,19.531,24.342772,0.5843691,-7.7846,35.454086,25.321314,3.7819548,-9.106207,-2.566535,-45.622704,-39.895947,55.857876,-9.464706,-24.421724,-13.39533,6.296131,10.737395,-42.900948,0.5513974,2.4404254,-5.1271753,9.4751835,-3.0695107,37.195225,-14.095431,11.317601,-3.517504,-24.921398,-1.3978958,-6.036896,6.930001,-6.2904162,43.660023,0.57145834,-20.618406,-20.842508,99.16164,-40.86221,18.23387,5.6828966,38.456505,15.870685,3.5874488,-58.84267,0.015432017,-3.2873688,-10.012785,-5.436552,-13.875398,-72.74898,1.2667564,33.44882,-4.275052,62.675407,-17.756083,-10.115122,11.98312,47.955044,-2.28781,43.223125,-7.5307636,-12.900332,-28.908052,19.845352,3.8046002,-2.0029745,-27.054031,-2.9632695,-28.178577,22.979681,1.69276,5.6184735,4.7858334,-6.442439,33.00578,-5.0570703,63.485016,2.2015345,-10.3480625,-7.80034,1.2838182,-10.238133,16.237585,3.5601027,-12.602796,0.43484047,8.008513,2.47004,0.86034375,-3.8011882,50.0809,-4.568172,5.200731,-9.19973,0.6411096,14.863516,-18.088808,16.769035,-4.2797575,0.75769305,4.827714,7.144656,-2.261052,8.169238,-6.8876944,4.8782744
Diclofenac,6.4607363,-59.5992,4.6359663,14.894718,-0.8001066,1.3795271,-7.0928187,3.3535283,-0.91130775,14.987306,36.102962,5.9185867,107.26187,24.515045,-18.761679,-21.344471,16.663254,-6.3495636,-1.1644381,-16.688707,1.0613638,1.153315,-1.451876,1.2345974,-8.93685,25.212793,10.070516,-41.063545,-66.45571,-24.05332,-16.414467,-11.958469,-34.11673,-17.879713,-13.68099,24.709717,7.9988217,28.739788,8.521131,1.8075006,-1.1561201,-45.652634,-4.0674877,33.069576,-11.734423,2.6820972,10.183693,-7.2513022,2.555955,16.11834,-21.825693,-4.6941285,-41.913506,4.7004876,5.0287066,5.4845037,-30.743788,4.5936027,-8.525804,25.564026,27.039152,-1.0386627,4.3767724,8.102944,10.651169,-0.7432878,-0.36529633,-52.78117,9.202378,2.148973,2.9690316,4.1134,2.597774,11.549562,3.107122,-0.58318156,9.896257,-11.784839,7.7558618,13.127888,13.952236,50.599964,-2.6592584,-0.3693925,68.75479,-3.7960453,35.411934,-12.083942,22.75095,-6.7030253,-2.731279,15.288678,-2.0395777,-58.102116,25.808268,28.97477,-1.2923737,-0.5412113,35.847984,32.159054,10.376381,-4.369324,-5.762007,-49.312023,-44.09099,59.93402,-1.9852979,-32.403378,-10.725458,-1.0931153,3.3475862,-43.177593,6.3819957,0.99282956,1.2453942,8.479519,3.0601108,54.246586,-20.80682,10.503556,-2.6042266,-31.103708,1.2059559,1.5648866,13.735842,-2.8100064,47.44559,8.722708,-28.178413,-28.815248,116.685684,-43.896103,31.387018,-1.06428,39.751347,6.8942966,2.0334625,-58.31801,-12.222397,-2.06178,-2.8126543,2.1527016,-7.7578235,-76.90846,-5.3123426,33.221893,-8.2820425,66.21398,-9.628398,-4.4257283,13.778365,57.22435,3.0958424,43.003544,-12.460387,-18.24664,-30.50063,27.330036,4.1612787,-1.6337291,-26.999632,1.6678864,-44.88007,28.607248,4.5826364,15.411055,8.334908,-11.176094,37.895428,-7.495562,66.937416,1.0364935,-9.29545,4.7941813,-2.104923,-8.243537,19.659561,2.0477078,-20.62685,0.34317654,9.827288,-2.4401038,7.596472,-7.3476696,49.97599,-6.4574027,17.07284,1.7262409,-4.8696437,11.990671,-18.658396,11.81524,-6.1745925,1.2903502,-3.5824738,2.56195,-7.405206,1.285415,-11.290618,8.925159
Urea,22.356752,-49.837,7.390045,6.6952553,1.8976294,-4.777937,-5.950303,2.3739367,-5.883162,4.4801736,24.537434,6.539385,78.82197,11.117356,-13.623829,-18.919819,13.92324,-4.237247,2.606108,-17.48657,9.117694,-6.118845,-4.8940463,2.91351,-16.961943,16.861135,-2.2270093,-28.405985,-46.090553,-14.194309,-2.7887096,-0.9830767,-14.920401,0.11196486,-17.011389,21.342098,-2.1351783,18.89295,1.5945103,1.452144,-0.85275257,-37.137238,-1.8107785,24.563248,-15.679223,0.043363392,3.6449883,-0.20143746,-3.908765,6.231207,-20.92564,2.0300064,-37.78976,0.9031152,7.234319,2.1748044,-17.766176,6.0979624,-6.3985415,21.568222,16.431675,1.4380314,12.591605,-3.6248353,12.928464,3.0896208,-3.6780443,-35.907642,11.129962,1.2790178,-1.0311438,3.9190154,-5.161756,4.4355836,1.5713391,-12.867618,12.7189865,-11.867667,8.426567,6.5739303,9.86735,35.07875,-0.60549104,0.92726195,52.085,-8.453902,21.973507,-10.901966,9.228277,-4.439953,-6.958674,6.855416,2.7997265,-35.476986,18.8862,14.19244,-1.5716312,-2.2387202,25.198503,14.945757,4.566868,-9.91846,2.6647415,-42.611694,-33.02297,42.713367,-2.0891309,-28.003557,-16.64549,1.7403429,16.660486,-34.074448,3.1276438,-1.7561281,0.10593504,7.750586,4.0715594,32.097923,-9.4398155,6.599938,-1.57114,-18.027966,6.908539,-2.0531907,0.27912897,-0.33311844,29.710007,7.710348,-17.630451,-20.024134,85.90317,-39.248158,20.830757,1.0384059,24.163164,8.8105135,15.35534,-50.00682,-9.079859,-5.216715,4.9758253,0.66644126,-10.549439,-56.714993,-2.3211274,30.291933,-7.2882705,51.14663,-5.296926,-2.0193756,12.64469,40.59378,0.8645502,31.557121,-2.2117643,-12.3369255,-22.091038,13.0712805,-2.3930326,2.01129,-25.035686,0.7913643,-20.394554,15.918379,4.6086564,2.3539288,2.656665,-2.7043638,24.710772,-9.186427,53.47794,13.734271,-15.443431,2.2278173,5.017385,-3.45432,11.208876,6.2998805,-20.503696,4.2888417,7.2098465,1.1698077,7.1705956,-6.7090125,34.99892,-9.788798,5.1457653,-5.6511545,9.990679,2.9500542,-12.338415,17.546219,-12.513362,-1.1661,-2.411837,11.753694,-5.680066,5.931054,-4.6351194,0.16488284
Polistirene,16.659615,-48.975403,13.644849,11.271324,1.4489981,-3.0343254,-2.536143,4.199193,-9.249534,11.427189,32.42506,4.2700644,90.01694,19.276484,-23.456587,-12.580468,21.399654,-8.253263,-2.7102075,-16.501604,9.064267,-3.8564782,-9.940974,-2.5103788,-13.668428,17.662903,5.36848,-32.19541,-53.35847,-19.61121,-8.027918,-10.695096,-27.488718,-2.0216901,-12.50291,25.544952,9.558137,33.781887,9.7603035,-2.1571457,-13.068927,-43.664993,-11.257352,20.781677,-6.5495853,3.1320596,4.6001506,-5.577563,-5.769465,11.497699,-32.442078,-0.6905971,-41.0604,-9.496042,17.89241,6.821783,-19.45391,7.2024927,-9.199143,28.571417,18.45504,3.5592446,10.465873,-3.2429478,12.064638,5.7009645,-6.327867,-46.543533,10.001767,0.7320335,-9.338333,1.8280556,0.51859504,6.8126802,2.0222614,-15.359917,16.947803,-12.55778,6.2016864,10.57294,5.2172127,43.590714,0.39826337,7.980088,54.557972,-8.74451,35.664387,-11.700517,9.638997,-6.456574,4.106278,8.18731,4.8310585,-47.096928,18.327675,16.047073,-13.298229,0.5229787,24.200226,18.626713,12.41323,-16.92462,5.389765,-48.17481,-34.20261,45.285324,5.489686,-28.76774,-16.864063,-3.9655013,17.485573,-41.624725,14.004214,9.066992,6.542134,10.570984,3.9754393,43.848328,-18.390253,8.313682,-4.3550463,-19.556541,9.786882,0.31470603,7.8622804,1.7778959,35.310345,14.660532,-14.859888,-26.760569,98.38109,-37.32391,30.414948,1.1062176,26.789625,9.524418,13.991107,-50.236473,-17.116646,-1.3249813,3.1399941,0.32181454,-6.6367483,-63.34961,-16.636093,31.52296,-14.545491,57.622368,-9.257305,-8.423656,16.08004,44.875748,1.0384777,36.49333,-9.977881,-15.181994,-29.67864,25.441408,7.3621407,-3.80434,-29.099936,7.2918906,-35.358364,22.617323,0.69800204,1.6507027,5.0284014,-11.818709,32.85126,-7.047011,57.586197,10.644102,-23.26611,8.4241905,1.7232134,-5.8027954,6.7660236,8.883461,-23.228733,-4.4939914,13.360765,-0.7316645,5.317595,-19.176794,35.611195,-13.012691,12.79175,-2.5333934,6.024914,7.154241,-11.830113,14.692014,-14.703209,1.9095235,-11.496422,12.07574,-5.2424936,0.821136,-2.9028068,10.348408
Polietilene,1.202343,-7.2808976,2.8253212,-1.2124414,1.2604514,-2.7857323,-1.1853104,1.8346899,-2.2067723,2.6328173,0.52038646,2.1818047,10.700153,2.7591836,-2.836041,-3.8428912,3.4079528,-0.7577612,-2.6184292,-5.3052797,4.8906717,-1.2816188,-2.229695,-5.861159,-0.6049068,-1.5148585,1.0882962,-5.3428354,-5.121141,-1.625185,2.6578104,-0.118088,0.46543467,-0.685651,-1.444483,0.74519694,-0.00027431996,3.8520293,3.0415802,-0.3884817,0.08004683,-5.1986494,0.70119274,2.9980316,1.1990899,0.19460565,-0.34884024,0.49909285,-6.459727,1.8710492,-3.69665,0.57604355,-7.3911533,-0.8371965,1.4198136,1.7221667,-2.6067162,0.3358119,1.0001898,5.035022,3.6596022,3.518661,1.2050489,-1.1151688,1.5177143,0.6621009,-3.148696,-7.044146,-0.1570206,3.6255915,0.06704028,-0.04761212,0.013392734,-1.2304785,-3.8365393,-1.9517959,5.5195146,-1.2867489,3.0163598,-2.809001,-3.5577574,7.3695693,-0.4572232,2.2351243,8.416946,-6.1675773,4.8605504,1.2713414,-3.2453675,2.12987,-1.8120131,0.26745144,0.5011961,-5.7910285,1.9135345,2.5355499,-3.6606462,-1.3952818,3.4569616,0.014010226,-2.2309988,-5.0713286,2.282115,-6.237616,-2.6433868,6.3141828,2.4835331,-0.011026869,-1.4999292,-0.72410953,3.0960019,-6.0989194,-1.085883,4.716962,0.5828278,2.5624955,0.9862917,0.34288406,-2.003924,4.1581855,-3.740504,-4.6753035,-1.3055921,-1.1406343,-2.1590528,2.0520875,3.7540226,-2.2904048,-1.0926938,-0.792727,11.014423,-5.267629,0.03884773,3.052541,5.2563133,4.7261095,2.9736402,-9.303508,-0.5342968,-0.13373137,0.07095791,-2.2665288,-3.3341634,-8.887998,2.8348198,3.5616786,-2.3431375,7.389685,-6.506536,-5.32747,-2.7181084,2.9485362,0.35418984,4.808511,-0.75915384,-0.6220534,-5.2933836,2.6280737,-0.66062576,-1.6593338,-6.247879,4.380679,0.061282773,0.6931987,0.44957554,-3.2534401,0.062722884,-2.405707,4.476325,2.5013425,8.59767,0.15913989,-2.4934413,-2.4111483,3.7025728,1.0710176,-0.48000228,2.7555566,-1.8712313,-2.146518,0.2427933,-1.4251157,-2.1013856,-1.0653582,5.272735,-4.161342,-3.4137096,-3.3733919,0.54959095,1.1812755,-0.18338263,4.612605,0.70891577,3.1062777,-3.4878263,4.9582806,5.063323,-0.48656884,3.947955,2.417373
PVC,19.308365,-45.8981,13.401256,10.040785,0.78900445,-3.7371786,-2.805845,4.3961253,-10.280096,8.75377,29.44672,4.201457,83.88739,15.990493,-20.903511,-11.876831,20.008774,-7.2988167,-2.5143113,-16.40441,9.407647,-5.071476,-9.313067,-1.2067785,-13.859753,15.676774,1.1512095,-28.3823,-47.926826,-17.006084,-6.5870028,-8.737811,-23.882833,0.8475771,-11.590285,22.905945,7.6113977,30.74998,6.288577,-2.7086442,-12.61877,-40.450787,-8.744873,17.016068,-5.5304,3.8651214,4.7522573,-3.671113,-4.232695,10.632824,-29.841368,-0.74272394,-37.623634,-8.209574,17.903908,5.958736,-18.071398,7.178773,-7.553191,25.935535,15.53296,2.239114,12.3027115,-5.0076437,11.798298,7.0833173,-5.922551,-42.932693,9.394083,0.8458875,-9.774531,1.3773506,0.7120056,5.2153893,2.57271,-15.531621,16.139952,-12.110815,5.3953495,11.057657,6.5154815,40.174942,1.5721109,8.002581,50.089916,-9.867024,32.227036,-11.68587,8.622404,-6.5446396,3.6957994,7.789327,6.0552783,-42.29147,16.732828,14.208499,-12.417553,1.9689022,21.96851,15.48563,11.091118,-17.20044,4.9870706,-45.373653,-31.160229,41.391026,5.790381,-27.014616,-16.504986,-3.7421358,17.708813,-36.53106,13.356024,7.602523,6.5097322,10.319599,4.215883,40.565178,-14.848831,6.798839,-3.7371383,-16.252777,10.980745,-0.30699492,5.6188807,2.3703554,29.942848,14.042975,-12.568929,-23.169905,90.85011,-35.740963,28.500525,1.2961254,23.812216,8.173332,15.987576,-45.936985,-16.187893,-2.3260334,6.801255,0.75495,-6.5302086,-57.62598,-15.861248,29.743069,-13.40677,53.05504,-6.5811896,-7.2418,15.748802,40.551487,2.102015,33.678375,-8.909221,-14.336804,-27.916025,21.36332,5.631955,-1.5754416,-27.866093,5.420408,-31.511652,19.49808,1.8455334,0.37560356,2.7344382,-10.549375,29.350912,-6.9466376,54.113823,13.544983,-21.826427,7.828475,1.3067263,-2.9200068,5.9902077,9.701818,-21.025766,-4.006975,12.039296,0.40416235,5.042562,-18.787096,33.083874,-11.981295,11.694264,-2.7056606,7.3223066,4.043611,-12.382326,13.803864,-13.634341,2.5345986,-10.622639,11.539021,-4.885773,0.58422095,-2.3887627,7.2023664
2_4_5-trichlorophenoxyacetic,9.077038,-56.74815,7.724911,12.217892,1.576433,-1.9583502,-5.216491,4.0957026,-4.1423507,14.964508,33.118145,7.5118513,102.50219,23.759214,-21.571815,-20.47335,18.792072,-5.990235,-0.9036481,-18.277576,5.843722,-1.7733647,-4.228452,-2.2718945,-10.900446,23.61751,10.106801,-40.73549,-62.885887,-22.419209,-11.233371,-10.968743,-31.212938,-13.506612,-13.75338,25.832228,8.881262,30.31209,11.337527,0.3771598,-3.4185965,-44.50835,-5.9761543,32.431175,-12.021652,-0.29275417,7.1728272,-7.5905952,-4.5731854,13.688634,-27.063158,-1.9237945,-45.067497,0.12753351,8.061086,6.0602098,-28.250757,5.231209,-9.281817,27.265081,26.45127,1.6700482,6.9435973,5.3894963,10.145028,1.2429708,-1.6795433,-52.06523,11.84619,3.2208612,0.7793157,4.898021,-1.6825397,11.301393,0.8622755,-6.182356,15.291551,-11.816472,9.601691,9.184479,6.5200715,49.71,-3.709793,3.0047646,67.0901,-6.351355,35.569675,-11.690456,17.450676,-4.0709767,-2.3953207,10.063082,-1.3461475,-53.98908,23.131382,24.967144,-5.8096423,-3.354186,32.573856,27.016478,8.937528,-11.010258,0.948085,-50.933292,-41.360588,56.481667,-1.9599309,-31.156534,-13.798649,-0.26055998,11.062127,-46.779156,7.214736,4.006125,0.6836898,8.864057,1.6512136,46.54229,-20.190569,11.283978,-3.3483388,-28.712383,3.0419173,-0.18181254,10.438655,-1.1318749,44.74512,8.852737,-23.699575,-28.192003,111.50907,-42.116016,28.724827,1.6388345,38.497585,11.595005,7.103496,-58.79711,-10.932798,-1.221621,-5.1555266,-0.8891247,-9.678887,-75.70709,-7.121016,34.77186,-9.690307,65.38404,-13.116108,-7.621432,13.524946,54.28796,0.8144881,43.09191,-10.204856,-17.194984,-32.254326,27.391956,4.817954,-3.3872373,-30.219648,3.0392141,-38.529705,25.391813,1.9360822,8.690741,8.476533,-9.812295,38.251286,-7.229439,65.294464,3.2092938,-15.60485,2.5490055,1.878129,-8.885982,15.144112,3.3267963,-21.786955,-1.2149597,10.608891,-0.8018886,4.442139,-10.009694,47.550465,-9.487853,11.756071,-2.702988,0.9221115,12.627772,-16.808613,16.375889,-9.837108,1.483912,-5.246696,8.454863,-5.047222,2.9842355,-7.300949,9.707435
Ciprofloxacin,5.276386,-56.73877,-0.75754404,7.447727,4.162672,-2.279641,-7.5380936,3.3352764,-8.635637,15.559225,26.158567,9.387296,101.76915,21.06295,-17.230333,-26.123798,17.309557,-2.812363,-0.04456625,-22.863197,7.3800807,1.5610728,2.6706278,-6.118647,-3.9106984,17.740913,5.4720006,-42.69213,-58.89935,-20.066748,-6.282671,-7.4693875,-25.568316,-18.158745,-10.012507,15.637844,5.4317017,24.264101,6.6695004,-0.7705738,5.7849636,-35.829094,3.5236928,31.71171,-9.949699,-4.283184,7.12802,-2.8429673,-3.7144418,14.242001,-19.582386,-6.870067,-47.43309,6.08708,-0.93796647,2.6603923,-35.123764,3.628584,-1.5328622,23.543976,25.63327,-3.9615533,6.535415,10.905364,6.43282,4.853211,4.738908,-51.763634,9.463002,8.686904,6.1280975,6.527008,-0.8328356,12.716315,-0.40238488,4.0535507,14.019619,-10.570842,10.7008505,6.7714796,3.625382,51.603207,-6.0014024,1.0036579,70.95183,-12.934342,31.653625,-9.055198,18.085276,1.9139646,-7.9570484,6.814703,-2.33978,-51.719994,19.99398,31.903519,-9.415499,-0.679737,34.39694,28.123737,1.8531269,-14.399615,1.9122019,-50.789703,-41.021248,58.555264,-6.674326,-26.14621,-11.679791,4.828114,8.16893,-41.297062,2.555205,0.88226235,-3.292198,10.952957,-1.0914524,43.70361,-10.690429,13.184401,-4.0792403,-29.214304,0.27018574,-6.840117,3.0029159,-0.972673,39.750004,1.1816161,-23.945004,-17.55273,105.56468,-45.860893,20.966745,3.9410546,44.72903,15.805793,9.170842,-52.84841,-3.2201846,-2.2247024,-3.5781264,-0.56720823,-10.851363,-75.73263,1.6065763,33.704754,-0.70799387,63.417244,-14.425807,-8.536348,5.0105214,50.206707,3.3416219,44.04373,-7.948944,-18.855576,-35.748154,22.268396,-0.05801675,3.3690364,-31.837301,-4.7760353,-30.359253,19.525633,7.861095,11.035525,4.1505613,-7.3647327,35.14667,-6.3187356,68.05789,8.633879,-7.3496966,-4.664875,5.1738853,0.8129182,18.05864,3.6659858,-12.764251,0.30856642,3.8131945,1.3236282,-2.6817615,0.8290244,55.73237,-3.8093042,8.270377,-5.332629,0.46348017,8.654127,-22.56704,16.06251,-3.6531937,4.8403387,-1.4879651,6.1256394,-0.945301,2.1865914,-6.5471377,2.3060338
Amoxicillin,4.17739,-45.602646,-6.243942,2.4992034,3.2693958,-1.9884559,-7.280068,-0.3138649,-3.5909019,7.2134705,16.152613,9.68195,75.30468,12.0585985,-5.793141,-25.198824,7.20866,1.230182,3.5235898,-18.1755,4.256252,1.8932159,7.4608626,-0.55598676,-3.705328,13.458528,1.3072698,-31.49307,-43.865944,-11.365319,-4.540265,0.37521195,-11.398243,-14.659606,-9.943096,9.223554,-5.090788,9.687183,0.98770016,2.9991753,14.5348,-21.781504,9.310195,28.070127,-13.885995,-5.786967,4.351273,1.8128077,-1.4249558,7.2186723,-8.084976,-4.0656815,-35.957268,13.23861,-9.799831,-0.8395668,-26.570087,1.8938767,0.6517877,11.957248,18.96585,-4.469334,4.016791,10.214503,4.7247095,0.8027481,6.958988,-33.338894,7.8962455,6.7883825,10.909536,6.8618007,-4.5067477,9.986777,-1.852204,7.3883553,6.5712633,-6.715592,9.843984,1.4710177,5.400141,34.741425,-5.669405,-4.3384514,54.685402,-7.3584676,15.5834,-6.3374324,14.194863,2.5203173,-14.177903,4.239115,-5.563187,-33.295033,14.023797,24.488205,0.8500541,-4.0812135,30.384892,21.062073,-2.891369,-5.272137,-1.3341656,-35.989937,-34.26574,45.81742,-11.261042,-20.904882,-9.168885,9.17677,3.4663382,-27.64616,-6.4005594,-7.037483,-7.0255694,8.12077,-1.284216,27.975367,-1.4121541,8.603182,-1.32523,-22.732994,-2.7719004,-6.5824475,-2.3004055,-3.8996565,31.623182,-3.0014966,-21.891653,-10.416885,76.50884,-37.604385,9.862278,1.8059549,34.395004,10.712211,4.4819937,-42.81226,3.299483,-4.1456337,-2.933873,0.19418925,-9.308791,-56.771317,11.82738,25.461683,5.0833297,47.61416,-9.162886,-3.294616,0.78105545,36.97641,2.0637493,30.674665,-1.7543943,-11.841969,-20.08903,10.132893,-5.7744017,5.806717,-20.461096,-7.859179,-14.820853,13.157253,8.221777,9.797867,1.8644568,-0.9447746,21.922085,-6.4188247,51.967422,7.4828835,0.29538867,-7.23396,5.3234234,1.8079075,17.43135,1.0748595,-8.742838,7.863552,-1.4270395,1.7600499,-0.1759684,11.649276,44.114094,1.3078196,1.9070704,-7.0082016,0.6446936,4.0626693,-16.147919,13.183803,-0.80357206,-0.028650023,7.2914343,2.2941663,-2.0926538,5.3839426,-7.3616095,-3.6531572
Paracetamol,21.49776,-57.134995,7.1037583,10.493184,1.3946252,-2.530909,-7.726368,3.751301,-8.251223,10.060756,31.2861,6.089383,97.6273,16.33532,-17.710873,-21.08604,19.444687,-6.084251,-0.48752877,-20.173979,8.430391,-3.9593446,-4.6326036,1.2280241,-13.472847,19.345531,-1.2220607,-36.167564,-55.9474,-19.6728,-6.4165497,-6.17807,-25.007048,-5.865478,-15.753063,23.23541,3.626137,25.706179,2.3186731,-0.3384854,-3.4102423,-44.803146,-2.08477,26.380054,-12.426124,3.0481591,7.9813175,-2.4080875,-0.65551186,12.951958,-23.729607,-2.9831753,-43.561386,0.8848451,9.09494,2.8921866,-26.873793,6.459878,-6.3323298,26.05988,19.910755,-1.3199805,12.814488,0.011830449,13.333012,4.5256042,-3.3411117,-48.03026,9.666565,2.9136558,-1.9248747,4.639572,0.40057984,7.0068307,4.075178,-8.824609,13.813236,-14.250505,7.588063,12.518755,14.070878,46.463657,-0.7784332,3.331316,63.60972,-12.205267,31.583574,-13.525546,16.012112,-6.240407,-3.792812,10.335401,3.563591,-48.431183,23.310766,21.920689,-5.852704,2.8960662,30.057539,22.414799,7.5006905,-12.271385,0.66102785,-49.76185,-38.679,52.365574,-0.10523318,-30.337355,-16.040497,-0.7625455,13.774111,-38.76873,7.9753537,1.4616601,1.8116196,10.02023,4.569289,46.004208,-13.216935,9.225376,-3.4964902,-22.753298,7.728799,-2.7046306,4.363752,-0.04277122,34.890057,8.273596,-21.171747,-22.15314,104.83995,-45.718006,28.23123,1.3711421,31.201805,9.635509,15.391202,-53.320606,-11.655281,-5.405736,6.7988577,1.3734249,-10.053802,-68.54684,-5.8543663,34.465706,-8.038339,60.782585,-6.5880604,-3.7863035,14.90539,49.09717,3.3384697,40.54968,-7.208482,-17.97654,-31.198507,18.778736,0.46636593,3.444163,-29.90803,-0.37104973,-31.985933,20.598158,7.3883967,7.5732784,2.4836593,-7.447236,31.626978,-8.86785,64.81531,14.531423,-14.151029,3.6641738,2.2064056,-1.3072801,14.423998,7.426293,-19.668982,0.61722016,9.238451,0.46850145,5.6244273,-10.323281,45.369747,-10.059099,12.546453,-2.1443727,6.5621386,5.1231947,-19.47949,15.604879,-10.195558,2.6861491,-6.294671,9.103934,-5.3430033,2.682766,-6.55595,2.1067178
Fluoxetine,0.83477867,-55.56824,5.923243,14.265636,-0.7369961,1.4378853,-4.2932277,3.9262078,-5.345916,18.684774,35.39766,3.9699945,104.09523,26.796745,-23.654455,-16.79445,19.3467,-7.205375,-3.1735206,-16.848625,2.5313005,3.3099082,-2.0666215,-4.5929036,-5.7831774,21.494957,13.753721,-40.720814,-64.417694,-25.54915,-14.530452,-14.994561,-36.194,-18.5301,-9.065004,21.468733,12.900436,33.768494,12.791328,-0.9960312,-6.066863,-43.265083,-7.6584487,28.984808,-5.081231,1.4975173,7.8968625,-7.355167,-1.0274439,17.207039,-25.389164,-6.1362543,-41.84747,-2.1255767,8.239008,7.0992723,-30.30462,4.0465565,-6.664115,27.97905,26.572546,-0.49937958,2.2888548,8.450686,7.948313,2.7026787,0.070192374,-53.478455,7.8937554,2.6589599,-1.0407536,1.4860039,4.7107635,12.819084,1.4229063,0.072148055,13.890509,-10.936108,6.3945427,11.624239,5.1367183,52.21281,-2.963912,2.740199,65.68384,-5.8588023,39.20744,-8.605824,20.115112,-3.106274,2.1304014,13.089451,-0.5230794,-60.416523,22.219845,30.68792,-11.534507,0.7552524,31.19414,31.366741,11.325034,-10.9579525,-0.24185725,-49.859447,-40.428204,57.253876,1.4689422,-29.185059,-9.005107,-2.9763691,4.623608,-44.178337,11.11957,6.0009093,3.7190173,9.355256,1.8163111,54.00996,-21.710802,11.476764,-3.791581,-30.65192,1.6560556,1.664293,13.992084,0.5325906,45.123203,10.427732,-24.323893,-27.893637,112.881546,-39.671345,31.670576,-0.3046349,41.38768,8.895371,3.0196528,-52.582535,-14.044973,1.3021412,-4.5571647,2.0929515,-4.923259,-74.8077,-11.397168,30.954924,-9.325208,64.07346,-12.996278,-8.122762,10.1316,54.443413,3.9083292,42.4894,-14.439377,-19.101574,-34.66975,32.493626,7.6881733,-3.7869544,-29.551931,3.9940872,-46.394672,27.3067,3.1575105,13.612436,8.980191,-14.1639805,39.834167,-5.690584,64.18021,0.2996357,-12.572683,6.14632,-0.37809038,-5.908524,16.116507,2.6266034,-19.58257,-4.3250995,9.498395,-2.455391,2.9285696,-9.944615,47.3873,-7.0558896,16.890617,2.214835,-5.4792967,11.940042,-16.662153,11.001709,-6.939914,4.1530404,-9.125233,3.9023216,-4.4990206,-1.7584511,-8.085357,12.695905
Sertraline,-0.37015423,-52.762012,6.507603,15.034427,-2.4572692,2.532069,-3.4721048,3.3146217,-2.9878726,16.875805,35.957077,2.5280688,98.434975,26.093306,-22.770018,-13.870559,17.276667,-7.364659,-2.8992398,-14.06712,-0.11448256,3.9986355,-2.2325094,-2.5358407,-6.4317856,21.746077,14.900878,-37.15357,-62.497417,-24.79258,-16.68395,-15.093175,-35.518837,-17.358843,-9.095802,21.47947,12.141937,33.137436,12.86778,-0.12838511,-7.740007,-42.260025,-9.7856655,27.207407,-4.776505,3.3606806,7.4831233,-7.1571703,0.5624161,16.273565,-24.269213,-5.107324,-37.151787,-3.10445,8.966176,7.788432,-26.020662,3.9102087,-7.586414,26.581789,25.264982,0.6401293,0.536693,7.19749,8.358886,1.3471619,-0.8643138,-49.410202,7.1152606,-0.27635184,-2.3128886,-0.32672182,5.79795,11.828527,1.5978533,-0.7684633,11.471294,-10.188542,4.6884274,12.272419,6.4172587,47.80021,-1.8116326,1.5145679,59.848797,-2.1475062,37.52664,-7.945742,19.34142,-4.674347,3.164261,14.696036,-0.47741225,-58.75502,21.469893,28.131994,-9.286103,0.06694274,29.269388,30.635942,12.958725,-7.436716,-2.126937,-46.23084,-38.92398,53.837738,2.8445458,-29.212254,-7.559267,-4.031454,2.3669689,-41.55955,11.314503,5.0736356,5.2521,8.0900135,2.9320548,53.690098,-22.66708,9.593858,-2.9566774,-29.425432,1.3531189,4.440917,15.725984,0.19978756,44.68766,12.465003,-24.189938,-29.435946,108.20597,-36.33948,32.709026,-2.1438315,37.480175,5.40659,0.088015266,-50.29521,-16.329823,1.9402244,-3.9334636,3.431173,-2.503406,-70.111885,-13.129363,28.124838,-10.631577,60.347263,-10.6806135,-6.681076,10.99073,52.40163,4.233136,38.5911,-14.61172,-17.075838,-30.00536,32.525406,8.45792,-5.6675916,-25.763647,6.153783,-47.64127,28.311975,1.6731565,13.978389,9.697086,-14.650898,37.808327,-5.269178,59.013206,-2.038601,-12.039528,9.134343,-2.3820076,-7.863749,15.131442,1.9459565,-21.070019,-3.7778466,9.838033,-3.6762073,5.9311385,-10.362931,41.72351,-6.635743,18.22685,4.303921,-7.1322956,11.304165,-13.435923,8.627304,-7.582256,2.6649873,-8.889188,2.239821,-6.3413506,-2.068904,-8.697904,14.208395
Carbamazepine,9.932811,-55.09718,8.6664715,12.5912895,0.56128794,-1.714575,-4.6720047,3.6565917,-1.1702114,12.715707,33.446148,7.1633615,97.81895,22.793488,-20.512981,-18.876709,16.74196,-6.265374,0.11147716,-16.002758,4.550468,-2.4627166,-5.0137334,0.18085775,-13.5691805,24.787357,10.86641,-38.41937,-61.671375,-21.277683,-12.4909725,-9.943156,-29.710789,-11.592813,-15.514932,27.646162,7.21565,28.789213,11.4670315,1.8631241,-3.9057431,-44.286835,-7.623513,32.69406,-14.068846,0.27786392,6.3863215,-7.9084997,-4.459956,11.6554785,-26.502602,0.47671714,-42.100945,-0.031255297,8.56053,6.443076,-24.252787,5.1802187,-10.955846,26.29079,25.795135,3.4483993,6.3261676,3.516966,11.323744,-1.0057449,-3.0680118,-48.309624,12.310757,0.9015453,0.4637187,4.221251,-2.901849,10.28056,0.9497733,-8.594726,13.629993,-11.375132,9.09892,8.655121,7.742398,45.446392,-2.9431133,1.6502106,63.067287,-2.7543466,33.05077,-11.804009,16.35495,-5.523147,-2.613625,10.729309,-1.8839874,-51.216454,23.292574,21.468079,-1.914222,-5.2181187,31.791142,25.47637,9.856193,-7.498397,-0.2245986,-48.182022,-40.673374,53.65921,-1.9093479,-32.156586,-13.972585,-0.6120228,10.807833,-45.993073,6.030336,2.6465826,0.8723159,7.4581795,2.6536953,44.258083,-21.369461,9.8404255,-2.2730775,-27.730255,3.043516,1.9716885,11.453818,-2.0177085,45.40636,10.248032,-24.032833,-30.48335,108.017685,-39.75392,28.836674,0.33380714,34.771763,9.219914,5.1507063,-59.193848,-12.186712,-1.247874,-5.7949805,-0.5846779,-9.235074,-72.42979,-7.1384773,33.71185,-11.246241,63.06895,-11.226023,-5.9816575,14.950808,53.442833,-0.19391729,39.781273,-9.257371,-15.047632,-27.574572,26.333687,4.6040688,-5.0573883,-27.22556,4.927528,-37.707825,26.136358,0.0046386346,8.047607,9.787593,-8.856389,36.60167,-7.7284145,61.4676,1.0756406,-16.283258,4.270543,1.2142823,-11.888815,14.481243,2.3141568,-24.359095,0.4400627,11.428418,-1.7170186,7.8382664,-10.293069,43.16297,-10.18711,11.421632,-2.0562947,0.99610627,12.814416,-13.716548,16.180271,-11.280247,-0.82267743,-4.1625648,8.431204,-6.97631,3.9289722,-7.9400077,10.667794
PolyPhOx,7.509488,-56.674076,5.6902404,10.227491,0.9777171,-1.8737947,-4.0014005,3.8733165,-6.9480658,15.558873,31.72155,6.2645307,101.089134,23.777176,-23.107288,-19.579578,18.752789,-5.798815,-0.25219902,-19.674286,7.805927,-0.065929495,-2.3314576,-5.078196,-10.293852,21.267044,10.518138,-41.324734,-61.730225,-22.74939,-7.6132073,-9.778062,-29.168493,-13.8012905,-12.55129,22.50492,8.022731,30.063541,12.071232,-0.5212379,-3.5706618,-41.894337,-6.0271454,32.567623,-10.326409,-2.531002,4.5448294,-4.902753,-7.054492,12.393192,-26.92177,-2.564617,-45.78524,-2.3318102,6.808994,6.0250616,-28.649742,4.1726055,-5.806378,28.416397,26.29073,1.0108652,6.108343,4.8230963,9.114578,3.4297605,-0.6102963,-50.50206,10.810699,3.5891535,0.05675835,2.681302,-1.8756615,12.046435,-0.112734735,-4.987427,17.5271,-11.206901,8.956263,6.7591963,1.488341,49.630253,-3.8068142,2.733871,66.689575,-8.6310215,34.85041,-8.60942,15.701279,0.08548634,-2.3836386,7.862717,-0.516382,-54.415844,21.364252,26.498905,-10.710587,-2.8463833,30.71078,26.187775,7.1217318,-14.468386,5.1641183,-51.91321,-40.292534,55.266315,-1.6026006,-30.742664,-13.356399,0.07970315,11.822546,-46.873135,7.160132,3.836961,0.5548384,9.037957,1.3429649,44.67137,-18.406677,12.120201,-3.386224,-29.951555,3.0665734,-0.8509083,7.8458276,1.2804719,42.613785,8.824513,-23.53286,-26.435263,109.53023,-41.874847,27.430717,1.6327698,40.763374,12.961613,9.207575,-55.97456,-10.949495,0.17535377,-5.2532,-0.10433406,-8.734497,-75.203926,-6.65673,34.182266,-8.364517,64.12956,-13.5156765,-8.186676,9.281983,53.28167,1.8124352,42.014374,-9.291557,-18.251469,-34.128048,28.479897,3.3837285,-2.5707197,-32.14938,3.0231607,-36.151516,22.805546,2.8133032,8.303194,8.942265,-9.4264345,38.651585,-7.205082,64.549576,4.663114,-15.921104,2.4794579,4.9521494,-5.479706,14.270942,2.9009922,-22.084606,-1.2233281,8.392793,-0.8750192,1.7163836,-7.557717,47.765766,-9.476174,9.998937,-2.8958175,1.8841869,10.723992,-16.60766,17.43665,-10.439982,2.4910567,-7.261234,9.673798,-3.6170964,1.4598956,-5.6662083,9.441539
